digraph Tree {
0 [label="pr_zscore <= -0.6370\nmse = 0.00104008882154\nsamples = 234", shape="box"] ;
1 [label="tmmx_zscore <= 0.0644\nmse = 0.000628039285943\nsamples = 74", shape="box"] ;
0 -> 1 ;
2 [label="vs_zscore <= -0.1989\nmse = 0.000602648009462\nsamples = 19", shape="box"] ;
1 -> 2 ;
3 [label="pdsi_zscore <= -1.1213\nmse = 0.000323740855796\nsamples = 17", shape="box"] ;
2 -> 3 ;
4 [label="rmin_zscore <= -0.7169\nmse = 2.58223856155e-05\nsamples = 6", shape="box"] ;
3 -> 4 ;
5 [label="fm1000_zscore <= -1.4075\nmse = 3.48621506652e-07\nsamples = 2", shape="box"] ;
4 -> 5 ;
6 [label="mse = 0.0000\nsamples = 1\nvalue = [ 0.08898305]", shape="box"] ;
5 -> 6 ;
7 [label="mse = -0.0000\nsamples = 1\nvalue = [ 0.09016393]", shape="box"] ;
5 -> 7 ;
8 [label="srad_zscore <= 0.3173\nmse = 3.68495345138e-06\nsamples = 4", shape="box"] ;
4 -> 8 ;
9 [label="th_zscore <= 0.2261\nmse = 2.03865171709e-07\nsamples = 2", shape="box"] ;
8 -> 9 ;
10 [label="mse = 0.0000\nsamples = 1\nvalue = [ 0.09745763]", shape="box"] ;
9 -> 10 ;
11 [label="mse = -0.0000\nsamples = 1\nvalue = [ 0.09836066]", shape="box"] ;
9 -> 11 ;
12 [label="mse = -0.0000\nsamples = 2\nvalue = [ 0.10169492]", shape="box"] ;
8 -> 12 ;
13 [label="sph_zscore <= -0.3934\nmse = 0.000183330242101\nsamples = 11", shape="box"] ;
3 -> 13 ;
14 [label="sph_zscore <= -1.3453\nmse = 3.03766214356e-05\nsamples = 10", shape="box"] ;
13 -> 14 ;
15 [label="pet_zscore <= 0.0628\nmse = 1.95871787637e-05\nsamples = 5", shape="box"] ;
14 -> 15 ;
16 [label="sph_zscore <= -1.6130\nmse = 3.07048396813e-06\nsamples = 4", shape="box"] ;
15 -> 16 ;
17 [label="mse = 0.0000\nsamples = 3\nvalue = [ 0.06193631]", shape="box"] ;
16 -> 17 ;
18 [label="mse = -0.0000\nsamples = 1\nvalue = [ 0.05791506]", shape="box"] ;
16 -> 18 ;
19 [label="mse = -0.0000\nsamples = 1\nvalue = [ 0.05058366]", shape="box"] ;
15 -> 19 ;
20 [label="pet_zscore <= -0.5629\nmse = 4.37476421099e-06\nsamples = 5", shape="box"] ;
14 -> 20 ;
21 [label="tmmn_zscore <= -0.7208\nmse = 1.21594868696e-06\nsamples = 3", shape="box"] ;
20 -> 21 ;
22 [label="mse = 0.0000\nsamples = 2\nvalue = [ 0.06666667]", shape="box"] ;
21 -> 22 ;
23 [label="mse = -0.0000\nsamples = 1\nvalue = [ 0.06432749]", shape="box"] ;
21 -> 23 ;
24 [label="mse = 0.0000\nsamples = 2\nvalue = [ 0.06976849]", shape="box"] ;
20 -> 24 ;
25 [label="mse = -0.0000\nsamples = 1\nvalue = [ 0.10655738]", shape="box"] ;
13 -> 25 ;
26 [label="tmmn_zscore <= -0.8706\nmse = 0.000177777777778\nsamples = 2", shape="box"] ;
2 -> 26 ;
27 [label="mse = 0.0000\nsamples = 1\nvalue = [ 0.14666667]", shape="box"] ;
26 -> 27 ;
28 [label="mse = 0.0000\nsamples = 1\nvalue = [ 0.12]", shape="box"] ;
26 -> 28 ;
29 [label="pet_zscore <= 2.8619\nmse = 0.000252682337266\nsamples = 55", shape="box"] ;
1 -> 29 ;
30 [label="fm1000_zscore <= 0.2264\nmse = 0.000212871568054\nsamples = 51", shape="box"] ;
29 -> 30 ;
31 [label="sph_zscore <= 2.0253\nmse = 0.000172986164311\nsamples = 50", shape="box"] ;
30 -> 31 ;
32 [label="tmmn_zscore <= 0.6358\nmse = 0.00016097091831\nsamples = 47", shape="box"] ;
31 -> 32 ;
33 [label="pr_zscore <= -0.6828\nmse = 0.000166783717383\nsamples = 25", shape="box"] ;
32 -> 33 ;
34 [label="pdsi_zscore <= 0.8551\nmse = 0.000118040970515\nsamples = 24", shape="box"] ;
33 -> 34 ;
35 [label="tmmn_zscore <= -0.2465\nmse = 9.0422430676e-05\nsamples = 20", shape="box"] ;
34 -> 35 ;
36 [label="fm100_zscore <= -0.4310\nmse = 6.33132640582e-06\nsamples = 2", shape="box"] ;
35 -> 36 ;
37 [label="mse = 0.0000\nsamples = 1\nvalue = [ 0.05836576]", shape="box"] ;
36 -> 37 ;
38 [label="mse = 0.0000\nsamples = 1\nvalue = [ 0.05333333]", shape="box"] ;
36 -> 38 ;
39 [label="sph_zscore <= 0.1290\nmse = 6.87924354558e-05\nsamples = 18", shape="box"] ;
35 -> 39 ;
40 [label="mse = 0.0000\nsamples = 8\nvalue = [ 0.04235573]", shape="box"] ;
39 -> 40 ;
41 [label="mse = 0.0001\nsamples = 10\nvalue = [ 0.0349659]", shape="box"] ;
39 -> 41 ;
42 [label="srad_zscore <= -0.0154\nmse = 4.12653825745e-05\nsamples = 4", shape="box"] ;
34 -> 42 ;
43 [label="mse = 0.0000\nsamples = 1\nvalue = [ 0.06666667]", shape="box"] ;
42 -> 43 ;
44 [label="pet_zscore <= 1.9558\nmse = 5.09204725657e-06\nsamples = 3", shape="box"] ;
42 -> 44 ;
45 [label="mse = 0.0000\nsamples = 2\nvalue = [ 0.0539401]", shape="box"] ;
44 -> 45 ;
46 [label="mse = -0.0000\nsamples = 1\nvalue = [ 0.04972376]", shape="box"] ;
44 -> 46 ;
47 [label="mse = -0.0000\nsamples = 1\nvalue = [ 0.08]", shape="box"] ;
33 -> 47 ;
48 [label="tmmn_zscore <= 0.6644\nmse = 0.000107386528986\nsamples = 22", shape="box"] ;
32 -> 48 ;
49 [label="mse = 0.0000\nsamples = 1\nvalue = [ 0.08287293]", shape="box"] ;
48 -> 49 ;
50 [label="rmax_zscore <= 0.9896\nmse = 6.96845489178e-05\nsamples = 21", shape="box"] ;
48 -> 50 ;
51 [label="sph_zscore <= 0.4247\nmse = 4.33267134307e-05\nsamples = 20", shape="box"] ;
50 -> 51 ;
52 [label="rmin_zscore <= -1.1043\nmse = 2.75236485703e-05\nsamples = 7", shape="box"] ;
51 -> 52 ;
53 [label="mse = 0.0000\nsamples = 3\nvalue = [ 0.0502032]", shape="box"] ;
52 -> 53 ;
54 [label="mse = 0.0000\nsamples = 4\nvalue = [ 0.05985154]", shape="box"] ;
52 -> 54 ;
55 [label="pr_zscore <= -0.9138\nmse = 3.33274653425e-05\nsamples = 13", shape="box"] ;
51 -> 55 ;
56 [label="mse = 0.0000\nsamples = 10\nvalue = [ 0.04661369]", shape="box"] ;
55 -> 56 ;
57 [label="mse = 0.0000\nsamples = 3\nvalue = [ 0.05454743]", shape="box"] ;
55 -> 57 ;
58 [label="mse = -0.0000\nsamples = 1\nvalue = [ 0.07602339]", shape="box"] ;
50 -> 58 ;
59 [label="fm100_zscore <= -0.1533\nmse = 2.76391979104e-05\nsamples = 3", shape="box"] ;
31 -> 59 ;
60 [label="mse = 0.0000\nsamples = 2\nvalue = [ 0.03345725]", shape="box"] ;
59 -> 60 ;
61 [label="mse = -0.0000\nsamples = 1\nvalue = [ 0.02230483]", shape="box"] ;
59 -> 61 ;
62 [label="mse = -0.0000\nsamples = 1\nvalue = [ 0.]", shape="box"] ;
30 -> 62 ;
63 [label="fm100_zscore <= -1.5122\nmse = 0.000143081713012\nsamples = 4", shape="box"] ;
29 -> 63 ;
64 [label="tmmx_zscore <= 2.0284\nmse = 4.74819314293e-05\nsamples = 3", shape="box"] ;
63 -> 64 ;
65 [label="mse = 0.0000\nsamples = 1\nvalue = [ 0.00552486]", shape="box"] ;
64 -> 65 ;
66 [label="th_zscore <= 0.2860\nmse = 7.631024694e-06\nsamples = 2", shape="box"] ;
64 -> 66 ;
67 [label="mse = 0.0000\nsamples = 1\nvalue = [ 0.02209945]", shape="box"] ;
66 -> 67 ;
68 [label="mse = 0.0000\nsamples = 1\nvalue = [ 0.01657459]", shape="box"] ;
66 -> 68 ;
69 [label="mse = -0.0000\nsamples = 1\nvalue = [ 0.03867403]", shape="box"] ;
63 -> 69 ;
70 [label="fm100_zscore <= 2.4488\nmse = 0.00105509820756\nsamples = 160", shape="box"] ;
0 -> 70 ;
71 [label="tmmx_zscore <= 0.6692\nmse = 0.000880997529723\nsamples = 159", shape="box"] ;
70 -> 71 ;
72 [label="vs_zscore <= 0.6009\nmse = 0.000940229116023\nsamples = 130", shape="box"] ;
71 -> 72 ;
73 [label="erc_zscore <= -1.4431\nmse = 0.0011246013176\nsamples = 92", shape="box"] ;
72 -> 73 ;
74 [label="erc_zscore <= -1.4726\nmse = 0.00594740530271\nsamples = 10", shape="box"] ;
73 -> 74 ;
75 [label="th_zscore <= -0.0810\nmse = 0.0016005659313\nsamples = 9", shape="box"] ;
74 -> 75 ;
76 [label="mse = 0.0000\nsamples = 1\nvalue = [ 0.13333333]", shape="box"] ;
75 -> 76 ;
77 [label="fm1000_zscore <= 2.3828\nmse = 0.000650289119787\nsamples = 8", shape="box"] ;
75 -> 77 ;
78 [label="fm1000_zscore <= 1.5691\nmse = 0.00042372477276\nsamples = 6", shape="box"] ;
77 -> 78 ;
79 [label="mse = 0.0000\nsamples = 1\nvalue = [ 0.]", shape="box"] ;
78 -> 79 ;
80 [label="fm1000_zscore <= 1.9087\nmse = 8.2875435833e-05\nsamples = 5", shape="box"] ;
78 -> 80 ;
81 [label="mse = 0.0000\nsamples = 4\nvalue = [ 0.04649936]", shape="box"] ;
80 -> 81 ;
82 [label="mse = -0.0000\nsamples = 1\nvalue = [ 0.06666667]", shape="box"] ;
80 -> 82 ;
83 [label="mse = -0.0000\nsamples = 2\nvalue = [ 0.]", shape="box"] ;
77 -> 83 ;
84 [label="mse = -0.0000\nsamples = 1\nvalue = [ 0.26666667]", shape="box"] ;
74 -> 84 ;
85 [label="sph_zscore <= 0.8499\nmse = 0.000381227353835\nsamples = 82", shape="box"] ;
73 -> 85 ;
86 [label="vs_zscore <= 0.1965\nmse = 0.00036649788048\nsamples = 76", shape="box"] ;
85 -> 86 ;
87 [label="pr_zscore <= 0.8576\nmse = 0.000373618061511\nsamples = 57", shape="box"] ;
86 -> 87 ;
88 [label="srad_zscore <= -0.6272\nmse = 0.000354609825027\nsamples = 44", shape="box"] ;
87 -> 88 ;
89 [label="erc_zscore <= -0.0672\nmse = 0.000487088604367\nsamples = 13", shape="box"] ;
88 -> 89 ;
90 [label="mse = 0.0002\nsamples = 12\nvalue = [ 0.04297057]", shape="box"] ;
89 -> 90 ;
91 [label="mse = -0.0000\nsamples = 1\nvalue = [ 0.10655738]", shape="box"] ;
89 -> 91 ;
92 [label="pet_zscore <= -0.7690\nmse = 0.000233307940093\nsamples = 31", shape="box"] ;
88 -> 92 ;
93 [label="mse = 0.0001\nsamples = 6\nvalue = [ 0.01815208]", shape="box"] ;
92 -> 93 ;
94 [label="mse = 0.0002\nsamples = 25\nvalue = [ 0.03649475]", shape="box"] ;
92 -> 94 ;
95 [label="sph_zscore <= 0.2888\nmse = 0.000187218281574\nsamples = 13", shape="box"] ;
87 -> 95 ;
96 [label="sph_zscore <= -0.9744\nmse = 0.000102697880426\nsamples = 12", shape="box"] ;
95 -> 96 ;
97 [label="mse = 0.0001\nsamples = 5\nvalue = [ 0.00873801]", shape="box"] ;
96 -> 97 ;
98 [label="mse = 0.0001\nsamples = 7\nvalue = [ 0.02213701]", shape="box"] ;
96 -> 98 ;
99 [label="mse = -0.0000\nsamples = 1\nvalue = [ 0.05263158]", shape="box"] ;
95 -> 99 ;
100 [label="rmax_zscore <= 0.9472\nmse = 0.000143531804351\nsamples = 19", shape="box"] ;
86 -> 100 ;
101 [label="rmax_zscore <= -0.1169\nmse = 8.62950553462e-05\nsamples = 18", shape="box"] ;
100 -> 101 ;
102 [label="sph_zscore <= 0.2219\nmse = 3.19309191955e-05\nsamples = 5", shape="box"] ;
101 -> 102 ;
103 [label="mse = 0.0000\nsamples = 4\nvalue = [ 0.02611236]", shape="box"] ;
102 -> 103 ;
104 [label="mse = -0.0000\nsamples = 1\nvalue = [ 0.01333333]", shape="box"] ;
102 -> 104 ;
105 [label="tmmn_zscore <= -0.3218\nmse = 6.81556054768e-05\nsamples = 13", shape="box"] ;
101 -> 105 ;
106 [label="mse = 0.0000\nsamples = 10\nvalue = [ 0.01462534]", shape="box"] ;
105 -> 106 ;
107 [label="mse = 0.0000\nsamples = 3\nvalue = [ 0.00194932]", shape="box"] ;
105 -> 107 ;
108 [label="mse = -0.0000\nsamples = 1\nvalue = [ 0.05019305]", shape="box"] ;
100 -> 108 ;
109 [label="erc_zscore <= -0.5931\nmse = 8.71250970458e-05\nsamples = 6", shape="box"] ;
85 -> 109 ;
110 [label="mse = 0.0000\nsamples = 4\nvalue = [ 0.]", shape="box"] ;
109 -> 110 ;
111 [label="erc_zscore <= -0.2786\nmse = 1.79624029237e-05\nsamples = 2", shape="box"] ;
109 -> 111 ;
112 [label="mse = 0.0000\nsamples = 1\nvalue = [ 0.0233463]", shape="box"] ;
111 -> 112 ;
113 [label="mse = 0.0000\nsamples = 1\nvalue = [ 0.01486989]", shape="box"] ;
111 -> 113 ;
114 [label="pet_zscore <= 0.1491\nmse = 0.000265286358985\nsamples = 38", shape="box"] ;
72 -> 114 ;
115 [label="th_zscore <= 0.3606\nmse = 0.0001906495023\nsamples = 33", shape="box"] ;
114 -> 115 ;
116 [label="th_zscore <= -2.5168\nmse = 8.91119864484e-05\nsamples = 31", shape="box"] ;
115 -> 116 ;
117 [label="mse = 0.0000\nsamples = 2\nvalue = [ 0.02695201]", shape="box"] ;
116 -> 117 ;
118 [label="fm100_zscore <= 1.0916\nmse = 6.8321264568e-05\nsamples = 29", shape="box"] ;
116 -> 118 ;
119 [label="sph_zscore <= -1.2325\nmse = 7.33202729394e-05\nsamples = 14", shape="box"] ;
118 -> 119 ;
120 [label="tmmx_zscore <= -1.7079\nmse = 1.1180513111e-05\nsamples = 4", shape="box"] ;
119 -> 120 ;
121 [label="mse = 0.0000\nsamples = 1\nvalue = [ 0.00772201]", shape="box"] ;
120 -> 121 ;
122 [label="mse = 0.0000\nsamples = 3\nvalue = [ 0.]", shape="box"] ;
120 -> 122 ;
123 [label="vs_zscore <= 2.4221\nmse = 5.61741603302e-05\nsamples = 10", shape="box"] ;
119 -> 123 ;
124 [label="mse = 0.0000\nsamples = 9\nvalue = [ 0.01561683]", shape="box"] ;
123 -> 124 ;
125 [label="mse = 0.0000\nsamples = 1\nvalue = [ 0.]", shape="box"] ;
123 -> 125 ;
126 [label="bi_zscore <= -1.7967\nmse = 3.37653936069e-05\nsamples = 15", shape="box"] ;
118 -> 126 ;
127 [label="mse = 0.0000\nsamples = 1\nvalue = [ 0.01930502]", shape="box"] ;
126 -> 127 ;
128 [label="vs_zscore <= 0.6870\nmse = 1.51324132627e-05\nsamples = 14", shape="box"] ;
126 -> 128 ;
129 [label="mse = 0.0000\nsamples = 1\nvalue = [ 0.01333333]", shape="box"] ;
128 -> 129 ;
130 [label="mse = 0.0000\nsamples = 13\nvalue = [ 0.00063052]", shape="box"] ;
128 -> 130 ;
131 [label="srad_zscore <= -0.8122\nmse = 0.000473076496243\nsamples = 2", shape="box"] ;
115 -> 131 ;
132 [label="mse = 0.0000\nsamples = 1\nvalue = [ 0.06666667]", shape="box"] ;
131 -> 132 ;
133 [label="mse = 0.0000\nsamples = 1\nvalue = [ 0.02316602]", shape="box"] ;
131 -> 133 ;
134 [label="th_zscore <= -0.9205\nmse = 0.000134200727605\nsamples = 5", shape="box"] ;
114 -> 134 ;
135 [label="mse = 0.0000\nsamples = 1\nvalue = [ 0.05836576]", shape="box"] ;
134 -> 135 ;
136 [label="srad_zscore <= -0.3788\nmse = 2.35593847405e-05\nsamples = 4", shape="box"] ;
134 -> 136 ;
137 [label="erc_zscore <= -0.1729\nmse = 8.47727877556e-06\nsamples = 2", shape="box"] ;
136 -> 137 ;
138 [label="mse = 0.0000\nsamples = 1\nvalue = [ 0.03861004]", shape="box"] ;
137 -> 138 ;
139 [label="mse = -0.0000\nsamples = 1\nvalue = [ 0.03278689]", shape="box"] ;
137 -> 139 ;
140 [label="rmin_zscore <= 0.0490\nmse = 3.64053510829e-06\nsamples = 2", shape="box"] ;
136 -> 140 ;
141 [label="mse = 0.0000\nsamples = 1\nvalue = [ 0.02542373]", shape="box"] ;
140 -> 141 ;
142 [label="mse = 0.0000\nsamples = 1\nvalue = [ 0.02923977]", shape="box"] ;
140 -> 142 ;
143 [label="th_zscore <= 0.3207\nmse = 0.000293967599961\nsamples = 29", shape="box"] ;
71 -> 143 ;
144 [label="pet_zscore <= 0.0790\nmse = 0.000234621174462\nsamples = 26", shape="box"] ;
143 -> 144 ;
145 [label="srad_zscore <= -0.4555\nmse = 2.08756818356e-06\nsamples = 3", shape="box"] ;
144 -> 145 ;
146 [label="mse = 0.0000\nsamples = 1\nvalue = [ 0.06666667]", shape="box"] ;
145 -> 146 ;
147 [label="pet_zscore <= 0.0308\nmse = 3.19484589915e-07\nsamples = 2", shape="box"] ;
145 -> 147 ;
148 [label="mse = 0.0000\nsamples = 1\nvalue = [ 0.06432749]", shape="box"] ;
147 -> 148 ;
149 [label="mse = -0.0000\nsamples = 1\nvalue = [ 0.06319703]", shape="box"] ;
147 -> 149 ;
150 [label="th_zscore <= -0.3576\nmse = 0.000198016671452\nsamples = 23", shape="box"] ;
144 -> 150 ;
151 [label="vs_zscore <= -0.2430\nmse = 4.11056876895e-05\nsamples = 5", shape="box"] ;
150 -> 151 ;
152 [label="vs_zscore <= -0.8383\nmse = 5.95912825831e-06\nsamples = 3", shape="box"] ;
151 -> 152 ;
153 [label="mse = 0.0000\nsamples = 2\nvalue = [ 0.05576208]", shape="box"] ;
152 -> 153 ;
154 [label="mse = 0.0000\nsamples = 1\nvalue = [ 0.05058366]", shape="box"] ;
152 -> 154 ;
155 [label="bi_zscore <= 0.9967\nmse = 1.46933539738e-07\nsamples = 2", shape="box"] ;
151 -> 155 ;
156 [label="mse = 0.0000\nsamples = 1\nvalue = [ 0.06614786]", shape="box"] ;
155 -> 156 ;
157 [label="mse = 0.0000\nsamples = 1\nvalue = [ 0.0669145]", shape="box"] ;
155 -> 157 ;
158 [label="rmax_zscore <= -2.4259\nmse = 0.000121579146105\nsamples = 18", shape="box"] ;
150 -> 158 ;
159 [label="fm1000_zscore <= -1.2629\nmse = 1.38195989552e-05\nsamples = 2", shape="box"] ;
158 -> 159 ;
160 [label="mse = 0.0000\nsamples = 1\nvalue = [ 0.01486989]", shape="box"] ;
159 -> 160 ;
161 [label="mse = -0.0000\nsamples = 1\nvalue = [ 0.02230483]", shape="box"] ;
159 -> 161 ;
162 [label="bi_zscore <= 0.2480\nmse = 9.46488225489e-05\nsamples = 16", shape="box"] ;
158 -> 162 ;
163 [label="sph_zscore <= 0.8778\nmse = 6.07949366525e-05\nsamples = 10", shape="box"] ;
162 -> 163 ;
164 [label="vs_zscore <= -0.2493\nmse = 2.95991253905e-05\nsamples = 5", shape="box"] ;
163 -> 164 ;
165 [label="mse = 0.0000\nsamples = 2\nvalue = [ 0.03352374]", shape="box"] ;
164 -> 165 ;
166 [label="mse = 0.0000\nsamples = 3\nvalue = [ 0.04433399]", shape="box"] ;
164 -> 166 ;
167 [label="rmin_zscore <= -1.0106\nmse = 7.18244465457e-06\nsamples = 5", shape="box"] ;
163 -> 167 ;
168 [label="mse = 0.0000\nsamples = 1\nvalue = [ 0.02230483]", shape="box"] ;
167 -> 168 ;
169 [label="mse = 0.0000\nsamples = 4\nvalue = [ 0.02815654]", shape="box"] ;
167 -> 169 ;
170 [label="sph_zscore <= 1.5027\nmse = 7.42440679129e-05\nsamples = 6", shape="box"] ;
162 -> 170 ;
171 [label="fm1000_zscore <= -0.3482\nmse = 2.94451709485e-05\nsamples = 3", shape="box"] ;
170 -> 171 ;
172 [label="mse = 0.0000\nsamples = 2\nvalue = [ 0.04825369]", shape="box"] ;
171 -> 172 ;
173 [label="mse = -0.0000\nsamples = 1\nvalue = [ 0.05947955]", shape="box"] ;
171 -> 173 ;
174 [label="pdsi_zscore <= -1.3669\nmse = 9.21306597016e-06\nsamples = 3", shape="box"] ;
170 -> 174 ;
175 [label="mse = 0.0000\nsamples = 1\nvalue = [ 0.04089219]", shape="box"] ;
174 -> 175 ;
176 [label="mse = 0.0000\nsamples = 2\nvalue = [ 0.03531599]", shape="box"] ;
174 -> 176 ;
177 [label="tmmn_zscore <= 1.4309\nmse = 0.0001808811265\nsamples = 3", shape="box"] ;
143 -> 177 ;
178 [label="vs_zscore <= 0.8853\nmse = 3.25929543597e-05\nsamples = 2", shape="box"] ;
177 -> 178 ;
179 [label="mse = 0.0000\nsamples = 1\nvalue = [ 0.05524862]", shape="box"] ;
178 -> 179 ;
180 [label="mse = 0.0000\nsamples = 1\nvalue = [ 0.06666667]", shape="box"] ;
178 -> 180 ;
181 [label="mse = 0.0000\nsamples = 1\nvalue = [ 0.0877193]", shape="box"] ;
177 -> 181 ;
182 [label="mse = 0.0000\nsamples = 1\nvalue = [ 0.2]", shape="box"] ;
70 -> 182 ;
}