digraph Tree {
0 [label="acres_zscore <= 9.8773\nmse = 1.6754633956e+12\nsamples = 648", shape="box"] ;
1 [label="acres_zscore <= 2.7929\nmse = 366102421611.0\nsamples = 646", shape="box"] ;
0 -> 1 ;
2 [label="acres_zscore_zscore <= 0.7436\nmse = 53452047820.1\nsamples = 637", shape="box"] ;
1 -> 2 ;
3 [label="acres_zscore <= -0.0466\nmse = 11647296535.7\nsamples = 616", shape="box"] ;
2 -> 3 ;
4 [label="acres_zscore <= -0.1431\nmse = 1654411653.95\nsamples = 549", shape="box"] ;
3 -> 4 ;
5 [label="acres_zscore_zscore <= -0.2081\nmse = 449486718.445\nsamples = 482", shape="box"] ;
4 -> 5 ;
6 [label="acres_zscore <= -0.2279\nmse = 71571361.1063\nsamples = 345", shape="box"] ;
5 -> 6 ;
7 [label="acres_zscore_zscore <= -0.2335\nmse = 14267866.5387\nsamples = 184", shape="box"] ;
6 -> 7 ;
8 [label="acres_zscore_zscore <= -0.2338\nmse = 905075.022195\nsamples = 77", shape="box"] ;
7 -> 8 ;
9 [label="mse = 708765.4095\nsamples = 72\nvalue = [ 947.55805556]", shape="box"] ;
8 -> 9 ;
10 [label="mse = 1778791.9637\nsamples = 5\nvalue = [ 2392.818]", shape="box"] ;
8 -> 10 ;
11 [label="insects <= 0.5000\nmse = 20045569.3026\nsamples = 107", shape="box"] ;
7 -> 11 ;
12 [label="mse = 15492283.8848\nsamples = 105\nvalue = [ 3813.30419048]", shape="box"] ;
11 -> 12 ;
13 [label="mse = 73977201.0000\nsamples = 2\nvalue = [ 17548.]", shape="box"] ;
11 -> 13 ;
14 [label="P2 <= 0.5000\nmse = 105625902.106\nsamples = 161", shape="box"] ;
6 -> 14 ;
15 [label="RP <= 0.5000\nmse = 92954106.6184\nsamples = 156", shape="box"] ;
14 -> 15 ;
16 [label="mse = 75276708.3250\nsamples = 100\nvalue = [ 7815.4036]", shape="box"] ;
15 -> 16 ;
17 [label="mse = 104412092.8535\nsamples = 56\nvalue = [ 13416.27160714]", shape="box"] ;
15 -> 17 ;
18 [label="fm1000_zscore_zscore <= 0.6588\nmse = 71359083.4532\nsamples = 5", shape="box"] ;
14 -> 18 ;
19 [label="mse = 28070978.3811\nsamples = 4\nvalue = [ 27386.455]", shape="box"] ;
18 -> 19 ;
20 [label="mse = -0.0000\nsamples = 1\nvalue = [ 44869.]", shape="box"] ;
18 -> 20 ;
21 [label="th_zscore <= 0.3672\nmse = 953510545.584\nsamples = 137", shape="box"] ;
5 -> 21 ;
22 [label="fm100_zscore_zscore <= -1.3058\nmse = 682963162.301\nsamples = 131", shape="box"] ;
21 -> 22 ;
23 [label="hail <= 0.5000\nmse = 2434842975.35\nsamples = 3", shape="box"] ;
22 -> 23 ;
24 [label="mse = 639931884.7656\nsamples = 2\nvalue = [ 42195.875]", shape="box"] ;
23 -> 24 ;
25 [label="mse = 0.0000\nsamples = 1\nvalue = [ 137259.]", shape="box"] ;
23 -> 25 ;
26 [label="pdsi_zscore_zscore <= 1.3085\nmse = 593924169.522\nsamples = 128", shape="box"] ;
22 -> 26 ;
27 [label="mse = 355559590.2840\nsamples = 110\nvalue = [ 25290.78518182]", shape="box"] ;
26 -> 27 ;
28 [label="mse = 1704870169.2277\nsamples = 18\nvalue = [ 45348.19888889]", shape="box"] ;
26 -> 28 ;
29 [label="CRC <= 0.5000\nmse = 4371700652.71\nsamples = 6", shape="box"] ;
21 -> 29 ;
30 [label="drought <= 0.5000\nmse = 358353432.974\nsamples = 5", shape="box"] ;
29 -> 30 ;
31 [label="mse = 169268114.0925\nsamples = 4\nvalue = [ 59100.85]", shape="box"] ;
30 -> 31 ;
32 [label="mse = -0.0000\nsamples = 1\nvalue = [ 21773.]", shape="box"] ;
30 -> 32 ;
33 [label="mse = -0.0000\nsamples = 1\nvalue = [ 222884.]", shape="box"] ;
29 -> 33 ;
34 [label="pdsi_zscore_zscore <= 1.1066\nmse = 5577022744.81\nsamples = 67", shape="box"] ;
4 -> 34 ;
35 [label="pr_zscore <= 0.3332\nmse = 2060433616.89\nsamples = 52", shape="box"] ;
34 -> 35 ;
36 [label="rmin_zscore <= -0.1402\nmse = 1663136999.83\nsamples = 42", shape="box"] ;
35 -> 36 ;
37 [label="acres_zscore <= -0.1356\nmse = 1819516554.73\nsamples = 29", shape="box"] ;
36 -> 37 ;
38 [label="mse = 1214435376.5625\nsamples = 2\nvalue = [ 157767.75]", shape="box"] ;
37 -> 38 ;
39 [label="mse = 1193304322.9570\nsamples = 27\nvalue = [ 59127.09222222]", shape="box"] ;
37 -> 39 ;
40 [label="pdsi_zscore <= -0.0713\nmse = 468370668.757\nsamples = 13", shape="box"] ;
36 -> 40 ;
41 [label="mse = 143367838.2177\nsamples = 8\nvalue = [ 18707.805]", shape="box"] ;
40 -> 41 ;
42 [label="mse = 367137965.5520\nsamples = 5\nvalue = [ 50480.6]", shape="box"] ;
40 -> 42 ;
43 [label="pdsi_zscore <= -0.3452\nmse = 2008208320.23\nsamples = 10", shape="box"] ;
35 -> 43 ;
44 [label="R <= 0.5000\nmse = 773669030.566\nsamples = 7", shape="box"] ;
43 -> 44 ;
45 [label="mse = 280496949.7811\nsamples = 5\nvalue = [ 92452.606]", shape="box"] ;
44 -> 45 ;
46 [label="mse = 20982812.4900\nsamples = 2\nvalue = [ 39728.2]", shape="box"] ;
44 -> 46 ;
47 [label="tmmn_zscore <= -0.9527\nmse = 458698884.944\nsamples = 3", shape="box"] ;
43 -> 47 ;
48 [label="mse = 0.0000\nsamples = 1\nvalue = [ 126669.6]", shape="box"] ;
47 -> 48 ;
49 [label="mse = 747541.8060\nsamples = 2\nvalue = [ 172077.775]", shape="box"] ;
47 -> 49 ;
50 [label="CRC <= 0.5000\nmse = 9546761044.2\nsamples = 15", shape="box"] ;
34 -> 50 ;
51 [label="H <= 0.5000\nmse = 3968495136.66\nsamples = 9", shape="box"] ;
50 -> 51 ;
52 [label="pr_zscore_zscore <= 0.5180\nmse = 176605494.49\nsamples = 2", shape="box"] ;
51 -> 52 ;
53 [label="mse = 0.0000\nsamples = 1\nvalue = [ 196550.]", shape="box"] ;
52 -> 53 ;
54 [label="mse = 0.0000\nsamples = 1\nvalue = [ 223128.6]", shape="box"] ;
52 -> 54 ;
55 [label="excess moisture/precip/rain <= 0.5000\nmse = 832603764.183\nsamples = 7", shape="box"] ;
51 -> 55 ;
56 [label="mse = 615381150.0140\nsamples = 6\nvalue = [ 79178.02833333]", shape="box"] ;
55 -> 56 ;
57 [label="mse = -0.0000\nsamples = 1\nvalue = [ 29258.8]", shape="box"] ;
55 -> 57 ;
58 [label="acres_zscore <= -0.0952\nmse = 2445685008.5\nsamples = 6", shape="box"] ;
50 -> 58 ;
59 [label="acres_zscore <= -0.1289\nmse = 643362597.292\nsamples = 4", shape="box"] ;
58 -> 59 ;
60 [label="mse = 203205025.0000\nsamples = 2\nvalue = [ 209138.]", shape="box"] ;
59 -> 60 ;
61 [label="mse = 69005418.3025\nsamples = 2\nvalue = [ 254182.75]", shape="box"] ;
59 -> 61 ;
62 [label="th_zscore_zscore <= 0.3340\nmse = 70003258.572\nsamples = 2", shape="box"] ;
58 -> 62 ;
63 [label="mse = 0.0000\nsamples = 1\nvalue = [ 318006.25]", shape="box"] ;
62 -> 63 ;
64 [label="mse = -0.0000\nsamples = 1\nvalue = [ 334739.84]", shape="box"] ;
62 -> 64 ;
65 [label="P2 <= 0.5000\nmse = 41003869077.6\nsamples = 67", shape="box"] ;
3 -> 65 ;
66 [label="pdsi_zscore <= 1.5431\nmse = 24329561647.5\nsamples = 64", shape="box"] ;
65 -> 66 ;
67 [label="acres_zscore_zscore <= 0.0110\nmse = 16705177977.9\nsamples = 58", shape="box"] ;
66 -> 67 ;
68 [label="RP <= 0.5000\nmse = 2830448658.6\nsamples = 12", shape="box"] ;
67 -> 68 ;
69 [label="tmmn_zscore_zscore <= 0.4024\nmse = 1143825924.57\nsamples = 9", shape="box"] ;
68 -> 69 ;
70 [label="mse = 353562499.8881\nsamples = 5\nvalue = [ 94361.218]", shape="box"] ;
69 -> 70 ;
71 [label="mse = 464434699.6355\nsamples = 4\nvalue = [ 39579.8625]", shape="box"] ;
69 -> 71 ;
72 [label="pdsi_zscore_zscore <= 0.7447\nmse = 616499695.924\nsamples = 3", shape="box"] ;
68 -> 72 ;
73 [label="mse = 26208870.6916\nsamples = 2\nvalue = [ 151188.06]", shape="box"] ;
72 -> 73 ;
74 [label="mse = 0.0000\nsamples = 1\nvalue = [ 203107.44]", shape="box"] ;
72 -> 74 ;
75 [label="acres_zscore <= 0.4013\nmse = 15430458822.4\nsamples = 46", shape="box"] ;
67 -> 75 ;
76 [label="hail <= 0.5000\nmse = 10620500046.2\nsamples = 34", shape="box"] ;
75 -> 76 ;
77 [label="mse = 7593563716.0081\nsamples = 32\nvalue = [ 203850.1540625]", shape="box"] ;
76 -> 77 ;
78 [label="mse = 8832724403.6305\nsamples = 2\nvalue = [ 434842.425]", shape="box"] ;
76 -> 78 ;
79 [label="th_zscore <= 0.3593\nmse = 18621707162.9\nsamples = 12", shape="box"] ;
75 -> 79 ;
80 [label="mse = 4369682769.9500\nsamples = 10\nvalue = [ 285077.189]", shape="box"] ;
79 -> 80 ;
81 [label="mse = 11266601808.0624\nsamples = 2\nvalue = [ 592222.55]", shape="box"] ;
79 -> 81 ;
82 [label="drought <= 0.5000\nmse = 48110414044.7\nsamples = 6", shape="box"] ;
66 -> 82 ;
83 [label="pdsi_zscore_zscore <= 1.8731\nmse = 9699838025.96\nsamples = 4", shape="box"] ;
82 -> 83 ;
84 [label="srad_zscore <= 0.6822\nmse = 981042626.56\nsamples = 2", shape="box"] ;
83 -> 84 ;
85 [label="mse = 0.0000\nsamples = 1\nvalue = [ 441350.4]", shape="box"] ;
84 -> 85 ;
86 [label="mse = -0.0001\nsamples = 1\nvalue = [ 378707.2]", shape="box"] ;
84 -> 86 ;
87 [label="th_zscore_zscore <= 0.3453\nmse = 232518277.102\nsamples = 2", shape="box"] ;
83 -> 87 ;
88 [label="mse = 0.0000\nsamples = 1\nvalue = [ 234562.3]", shape="box"] ;
87 -> 88 ;
89 [label="mse = 0.0000\nsamples = 1\nvalue = [ 204065.2]", shape="box"] ;
87 -> 89 ;
90 [label="fm100_zscore <= -0.6893\nmse = 12895185435.6\nsamples = 2", shape="box"] ;
82 -> 90 ;
91 [label="mse = 0.0000\nsamples = 1\nvalue = [ 838172.84]", shape="box"] ;
90 -> 91 ;
92 [label="mse = -0.0001\nsamples = 1\nvalue = [ 611058.9]", shape="box"] ;
90 -> 92 ;
93 [label="acres_zscore_zscore <= 0.1484\nmse = 59268483526.5\nsamples = 3", shape="box"] ;
65 -> 93 ;
94 [label="acres_zscore <= 0.0187\nmse = 19216444255.1\nsamples = 2", shape="box"] ;
93 -> 94 ;
95 [label="mse = 0.0000\nsamples = 1\nvalue = [ 541953.]", shape="box"] ;
94 -> 95 ;
96 [label="mse = 0.0000\nsamples = 1\nvalue = [ 819199.78]", shape="box"] ;
94 -> 96 ;
97 [label="mse = -0.0005\nsamples = 1\nvalue = [ 1137805.92]", shape="box"] ;
93 -> 97 ;
98 [label="tmmx_zscore <= 1.3118\nmse = 328900998751.0\nsamples = 21", shape="box"] ;
2 -> 98 ;
99 [label="fm1000_zscore_zscore <= -0.1576\nmse = 214647359518.0\nsamples = 20", shape="box"] ;
98 -> 99 ;
100 [label="jun <= 0.5000\nmse = 173603400347.0\nsamples = 13", shape="box"] ;
99 -> 100 ;
101 [label="sph_zscore_zscore <= 0.6290\nmse = 34753659985.4\nsamples = 9", shape="box"] ;
100 -> 101 ;
102 [label="vs_zscore_zscore <= 0.1254\nmse = 25177772521.1\nsamples = 7", shape="box"] ;
101 -> 102 ;
103 [label="sph_zscore_zscore <= 0.4575\nmse = 16240104317.9\nsamples = 6", shape="box"] ;
102 -> 103 ;
104 [label="mse = 3734141220.3860\nsamples = 5\nvalue = [ 960821.6]", shape="box"] ;
103 -> 104 ;
105 [label="mse = -0.0027\nsamples = 1\nvalue = [ 1268269.]", shape="box"] ;
103 -> 105 ;
106 [label="mse = -0.0005\nsamples = 1\nvalue = [ 1315275.21]", shape="box"] ;
102 -> 106 ;
107 [label="th_zscore_zscore <= 0.3113\nmse = 9088893787.78\nsamples = 2", shape="box"] ;
101 -> 107 ;
108 [label="mse = 0.0000\nsamples = 1\nvalue = [ 684200.76]", shape="box"] ;
107 -> 108 ;
109 [label="mse = 0.0002\nsamples = 1\nvalue = [ 874872.14]", shape="box"] ;
107 -> 109 ;
110 [label="drought <= 0.5000\nmse = 229473062467.0\nsamples = 4", shape="box"] ;
100 -> 110 ;
111 [label="pr_zscore <= -0.0366\nmse = 19836281644.6\nsamples = 2", shape="box"] ;
110 -> 111 ;
112 [label="mse = 0.0000\nsamples = 1\nvalue = [ 1417257.2]", shape="box"] ;
111 -> 112 ;
113 [label="mse = -0.0002\nsamples = 1\nvalue = [ 1135574.53]", shape="box"] ;
111 -> 113 ;
114 [label="fm100_zscore <= -0.4225\nmse = 226033380625.0\nsamples = 2", shape="box"] ;
110 -> 114 ;
115 [label="mse = 0.0000\nsamples = 1\nvalue = [ 2404649.44]", shape="box"] ;
114 -> 115 ;
116 [label="mse = 0.0005\nsamples = 1\nvalue = [ 1453790.08]", shape="box"] ;
114 -> 116 ;
117 [label="apr <= 0.5000\nmse = 34474477437.3\nsamples = 7", shape="box"] ;
99 -> 117 ;
118 [label="th_zscore <= 0.3212\nmse = 12161818545.2\nsamples = 6", shape="box"] ;
117 -> 118 ;
119 [label="bi_zscore <= -0.1140\nmse = 4143415659.28\nsamples = 3", shape="box"] ;
118 -> 119 ;
120 [label="fm100_zscore <= 1.2772\nmse = 299174101.222\nsamples = 2", shape="box"] ;
119 -> 120 ;
121 [label="mse = 0.0000\nsamples = 1\nvalue = [ 461998.8]", shape="box"] ;
120 -> 121 ;
122 [label="mse = -0.0001\nsamples = 1\nvalue = [ 427405.5]", shape="box"] ;
120 -> 122 ;
123 [label="mse = 0.0000\nsamples = 1\nvalue = [ 311481.1]", shape="box"] ;
119 -> 123 ;
124 [label="acres_zscore_zscore <= 0.9661\nmse = 4081151135.73\nsamples = 3", shape="box"] ;
118 -> 124 ;
125 [label="rmin_zscore_zscore <= 0.0684\nmse = 254230109.714\nsamples = 2", shape="box"] ;
124 -> 125 ;
126 [label="mse = 0.0000\nsamples = 1\nvalue = [ 551453.34]", shape="box"] ;
125 -> 126 ;
127 [label="mse = 0.0001\nsamples = 1\nvalue = [ 519564.15]", shape="box"] ;
125 -> 127 ;
128 [label="mse = 0.0000\nsamples = 1\nvalue = [ 668183.12]", shape="box"] ;
124 -> 128 ;
129 [label="mse = -0.0007\nsamples = 1\nvalue = [ 933194.7]", shape="box"] ;
117 -> 129 ;
130 [label="mse = -0.0195\nsamples = 1\nvalue = [ 2618269.16]", shape="box"] ;
98 -> 130 ;
131 [label="vs_zscore_zscore <= -1.0670\nmse = 3.3681483777e+12\nsamples = 9", shape="box"] ;
1 -> 131 ;
132 [label="acres_zscore <= 8.3294\nmse = 1.75973260498e+12\nsamples = 3", shape="box"] ;
131 -> 132 ;
133 [label="fm100_zscore <= -1.0911\nmse = 110308779216.0\nsamples = 2", shape="box"] ;
132 -> 133 ;
134 [label="mse = 0.0000\nsamples = 1\nvalue = [ 6117168.17]", shape="box"] ;
133 -> 134 ;
135 [label="mse = -0.0117\nsamples = 1\nvalue = [ 5452912.86]", shape="box"] ;
133 -> 135 ;
136 [label="mse = -0.0469\nsamples = 1\nvalue = [ 8539649.45]", shape="box"] ;
132 -> 136 ;
137 [label="vs_zscore_zscore <= -0.3202\nmse = 484399202421.0\nsamples = 6", shape="box"] ;
131 -> 137 ;
138 [label="srad_zscore <= 0.8528\nmse = 60273917761.0\nsamples = 4", shape="box"] ;
137 -> 138 ;
139 [label="bi_zscore <= 0.4713\nmse = 12061799697.8\nsamples = 2", shape="box"] ;
138 -> 139 ;
140 [label="mse = 0.0000\nsamples = 1\nvalue = [ 2791782.69]", shape="box"] ;
139 -> 140 ;
141 [label="mse = 0.0020\nsamples = 1\nvalue = [ 2572130.24]", shape="box"] ;
139 -> 141 ;
142 [label="acres_zscore_zscore <= 3.5973\nmse = 82599105.4375\nsamples = 2", shape="box"] ;
138 -> 142 ;
143 [label="mse = 0.0000\nsamples = 1\nvalue = [ 3156670.12]", shape="box"] ;
142 -> 143 ;
144 [label="mse = 0.0020\nsamples = 1\nvalue = [ 3138493.31]", shape="box"] ;
142 -> 144 ;
145 [label="rmax_zscore_zscore <= -1.2979\nmse = 50684782138.5\nsamples = 2", shape="box"] ;
137 -> 145 ;
146 [label="mse = 0.0000\nsamples = 1\nvalue = [ 4076340.1]", shape="box"] ;
145 -> 146 ;
147 [label="mse = -0.0078\nsamples = 1\nvalue = [ 4526605.72]", shape="box"] ;
145 -> 147 ;
148 [label="bi_zscore_zscore <= 1.0462\nmse = 1.68195833525e+13\nsamples = 2", shape="box"] ;
0 -> 148 ;
149 [label="mse = 0.0000\nsamples = 1\nvalue = [ 16266536.15]", shape="box"] ;
148 -> 149 ;
150 [label="mse = 0.0000\nsamples = 1\nvalue = [ 24468873.22]", shape="box"] ;
148 -> 150 ;
}